digraph Tree {
node [shape=box, fontname="helvetica"] ;
edge [fontname="helvetica"] ;
0 [label="x[120192] <= 103.348\ngini = 0.667\nsamples = 3\nvalue = [1, 1, 1]"] ;
1 [label="gini = 0.0\nsamples = 1\nvalue = [0, 1, 0]"] ;
0 -> 1 [labeldistance=2.5, labelangle=45, headlabel="True"] ;
2 [label="x[35948] <= 102.821\ngini = 0.5\nsamples = 2\nvalue = [1, 0, 1]"] ;
0 -> 2 [labeldistance=2.5, labelangle=-45, headlabel="False"] ;
3 [label="gini = 0.0\nsamples = 1\nvalue = [0, 0, 1]"] ;
2 -> 3 ;
4 [label="gini = 0.0\nsamples = 1\nvalue = [1, 0, 0]"] ;
2 -> 4 ;
}